FANN_FLO_2.1
num_layers=3
learning_rate=0.001000
connection_rate=1.000000
network_type=0
learning_momentum=0.000000
training_algorithm=2
train_error_function=1
train_stop_function=0
cascade_output_change_fraction=0.010000
quickprop_decay=-0.000100
quickprop_mu=1.750000
rprop_increase_factor=1.200000
rprop_decrease_factor=0.500000
rprop_delta_min=0.000000
rprop_delta_max=50.000000
rprop_delta_zero=0.100000
cascade_output_stagnation_epochs=12
cascade_candidate_change_fraction=0.010000
cascade_candidate_stagnation_epochs=12
cascade_max_out_epochs=150
cascade_min_out_epochs=50
cascade_max_cand_epochs=150
cascade_min_cand_epochs=50
cascade_num_candidate_groups=2
bit_fail_limit=3.49999994039535522461e-01
cascade_candidate_limit=1.00000000000000000000e+03
cascade_weight_multiplier=4.00000005960464477539e-01
cascade_activation_functions_count=10
cascade_activation_functions=3 5 7 8 10 11 14 15 16 17 
cascade_activation_steepnesses_count=4
cascade_activation_steepnesses=2.50000000000000000000e-01 5.00000000000000000000e-01 7.50000000000000000000e-01 1.00000000000000000000e+00 
layer_sizes=7 9 2 
scale_included=0
neurons (num_inputs, activation_function, activation_steepness)=(0, 0, 0.00000000000000000000e+00) (0, 0, 0.00000000000000000000e+00) (0, 0, 0.00000000000000000000e+00) (0, 0, 0.00000000000000000000e+00) (0, 0, 0.00000000000000000000e+00) (0, 0, 0.00000000000000000000e+00) (0, 0, 0.00000000000000000000e+00) (7, 3, 5.00000000000000000000e-01) (7, 3, 5.00000000000000000000e-01) (7, 3, 5.00000000000000000000e-01) (7, 3, 5.00000000000000000000e-01) (7, 3, 5.00000000000000000000e-01) (7, 3, 5.00000000000000000000e-01) (7, 3, 5.00000000000000000000e-01) (7, 3, 5.00000000000000000000e-01) (0, 3, 0.00000000000000000000e+00) (9, 3, 5.00000000000000000000e-01) (0, 3, 0.00000000000000000000e+00) 
connections (connected_to_neuron, weight)=(0, -4.26211881637573242188e+00) (1, 9.80628013610839843750e-01) (2, -1.15853965282440185547e+00) (3, -1.24894209206104278564e-01) (4, 1.72433161735534667969e+00) (5, 1.11572399139404296875e+01) (6, 2.19476550817489624023e-01) (0, 2.84306216239929199219e+00) (1, -4.00430488586425781250e+00) (2, 9.12870228290557861328e-01) (3, -1.15111398696899414062e+00) (4, 5.67815601825714111328e-01) (5, 2.06501150131225585938e+00) (6, -1.73979008197784423828e+00) (0, 2.19459724426269531250e+00) (1, -2.15082120895385742188e+00) (2, 3.06590485572814941406e+00) (3, -1.52991628646850585938e+00) (4, -4.96144711971282958984e-01) (5, -5.32151460647583007812e-01) (6, 1.20315992832183837891e+00) (0, -5.76487970352172851562e+00) (1, 5.54219865798950195312e+00) (2, -2.59995532035827636719e+00) (3, -5.01853406429290771484e-01) (4, -6.01265251636505126953e-01) (5, -1.32997074127197265625e+01) (6, -1.83647334575653076172e-01) (0, 2.26694536209106445312e+00) (1, -2.31691789627075195312e+00) (2, 1.79525887966156005859e+00) (3, -9.53544080257415771484e-01) (4, -5.06323397159576416016e-01) (5, 9.58231091499328613281e-01) (6, -7.05071330070495605469e-01) (0, 2.01854443550109863281e+00) (1, -2.32208442687988281250e+00) (2, 2.80673933029174804688e+00) (3, -1.26112079620361328125e+00) (4, -1.55028432607650756836e-01) (5, -4.42937552928924560547e-01) (6, 1.02915430068969726562e+00) (0, 2.82063865661621093750e+00) (1, -2.90449619293212890625e+00) (2, 1.66137278079986572266e+00) (3, -8.20349931716918945312e-01) (4, -1.27313363552093505859e+00) (5, 2.11879229545593261719e+00) (6, -1.70913994312286376953e+00) (0, 1.81874036788940429688e+00) (1, -2.20293951034545898438e+00) (2, 2.05887770652770996094e+00) (3, -7.71476984024047851562e-01) (4, -3.41750621795654296875e-01) (5, 5.31449139118194580078e-01) (6, -7.95958191156387329102e-02) (7, -9.35130774974822998047e-01) (8, -3.91189193725585937500e+00) (9, -8.81208181381225585938e-01) (10, -8.67210197448730468750e+00) (11, -1.05244314670562744141e+00) (12, -7.57822036743164062500e-01) (13, -2.50857615470886230469e+00) (14, -5.34781754016876220703e-01) (15, 2.10631036758422851562e+00) 
